Language model created by QuickLM on Thu Apr 29 02:12:56 EDT 2021
Copyright (c) 1996-2010 Carnegie Mellon University and Alexander I. Rudnicky

The model is in standard ARPA format, designed by Doug Paul while he was at MITRE.

The code that was used to produce this language model is available in Open Source.
Please visit http://www.speech.cs.cmu.edu/tools/ for more information

The (fixed) discount mass is 0.5. The backoffs are computed using the ratio method.
This model based on a corpus of 9 sentences and 10 words

\data\
ngram 1=10
ngram 2=17
ngram 3=20

\1-grams:
-0.9902 </s> -0.3010
-0.9902 <s> -0.2542
-1.6435 CALCULATOR -0.2542
-1.6435 CHROME -0.2542
-1.3424 CLOSE -0.2596
-0.9902 OLIVER -0.2542
-1.3424 OPEN -0.2596
-1.6435 SUBLIMETEXT -0.2542
-1.9445 TERMINATE -0.2542
-1.6435 YOUTUBE -0.2542

\2-grams:
-0.3010 <s> OLIVER 0.0000
-0.3010 CALCULATOR </s> -0.3010
-0.3010 CHROME </s> -0.3010
-0.9031 CLOSE CALCULATOR 0.0000
-0.9031 CLOSE CHROME 0.0000
-0.9031 CLOSE SUBLIMETEXT 0.0000
-0.9031 CLOSE YOUTUBE 0.0000
-0.6532 OLIVER CLOSE 0.0000
-0.6532 OLIVER OPEN 0.0000
-1.2553 OLIVER TERMINATE 0.0000
-0.9031 OPEN CALCULATOR 0.0000
-0.9031 OPEN CHROME 0.0000
-0.9031 OPEN SUBLIMETEXT 0.0000
-0.9031 OPEN YOUTUBE 0.0000
-0.3010 SUBLIMETEXT </s> -0.3010
-0.3010 TERMINATE </s> -0.3010
-0.3010 YOUTUBE </s> -0.3010

\3-grams:
-0.6532 <s> OLIVER CLOSE
-0.6532 <s> OLIVER OPEN
-1.2553 <s> OLIVER TERMINATE
-0.3010 CLOSE CALCULATOR </s>
-0.3010 CLOSE CHROME </s>
-0.3010 CLOSE SUBLIMETEXT </s>
-0.3010 CLOSE YOUTUBE </s>
-0.9031 OLIVER CLOSE CALCULATOR
-0.9031 OLIVER CLOSE CHROME
-0.9031 OLIVER CLOSE SUBLIMETEXT
-0.9031 OLIVER CLOSE YOUTUBE
-0.9031 OLIVER OPEN CALCULATOR
-0.9031 OLIVER OPEN CHROME
-0.9031 OLIVER OPEN SUBLIMETEXT
-0.9031 OLIVER OPEN YOUTUBE
-0.3010 OLIVER TERMINATE </s>
-0.3010 OPEN CALCULATOR </s>
-0.3010 OPEN CHROME </s>
-0.3010 OPEN SUBLIMETEXT </s>
-0.3010 OPEN YOUTUBE </s>

\end\
